<?xml version="1.0"?>
<opencv_storage>
<opencv_ml_svm>
  <format>3</format>
  <svmType>EPS_SVR</svmType>
  <kernel>
    <type>LINEAR</type></kernel>
  <C>1.0000000000000000e-02</C>
  <p>1.0000000000000001e-01</p>
  <term_criteria><epsilon>1.0000000000000000e-03</epsilon>
    <iterations>1000</iterations></term_criteria>
  <var_count>3780</var_count>
  <sv_total>1</sv_total>
  <support_vectors>
    <_>
      9.56777483e-03 3.13759316e-03 6.25187997e-03 -8.39632098e-03
      3.67843956e-02 -4.28091065e-04 6.00567739e-03 -1.20591680e-02
      -4.97118849e-03 2.98918765e-02 1.20998463e-02 1.86610054e-02
      -1.04888426e-02 1.54723355e-03 -3.08938920e-02 -1.81897376e-02
      -1.41560799e-02 7.03163119e-03 2.13594772e-02 -3.62537452e-03
      2.65098736e-02 1.58147677e-03 2.69380379e-02 1.56476477e-03
      -1.02415131e-02 -8.61677341e-03 1.89447440e-02 3.45160104e-02
      -1.24165509e-02 1.10203233e-02 7.14453869e-04 5.97891072e-03
      -1.48979519e-02 -3.86828855e-02 -1.39494771e-02 1.57568585e-02
      1.24667641e-02 8.88824090e-03 3.87627771e-03 -7.43988622e-03
      5.35748489e-02 -2.90553961e-02 -1.67771745e-02 -1.77239217e-02
      3.87316104e-03 -1.12158861e-02 1.61228664e-02 1.97622068e-02
      5.00080362e-03 3.65446806e-02 5.57805318e-03 6.94436161e-03
      -4.71497281e-03 -1.92373060e-02 4.13861638e-03 -8.95706937e-03
      1.91856688e-03 -2.06551282e-03 2.62976624e-02 -1.13889780e-02
      -1.19126551e-02 -1.52655616e-02 -7.63383089e-03 1.76193416e-02
      1.19918995e-02 2.83319652e-02 -2.91059143e-04 -3.57140624e-03
      -9.82990395e-03 -8.23868532e-03 9.55736823e-03 -8.29327665e-03
      3.77047318e-03 1.21421870e-02 2.32808832e-02 -1.41374329e-02
      8.77264980e-03 1.20811174e-02 6.05963776e-03 9.26116109e-03
      -1.19379172e-02 5.47780888e-03 -9.31415148e-03 7.68790813e-03
      -1.81365795e-02 6.60353713e-03 4.59383242e-03 3.28456075e-03
      9.69195832e-03 -3.77173373e-03 1.71135627e-02 1.57282799e-02
      1.09886527e-02 -2.11475715e-02 -1.21124927e-03 -1.34679573e-02
      -6.63809525e-03 1.66321322e-02 9.79788695e-03 -3.96848144e-03
      -1.82110607e-03 -1.79499779e-02 -1.76008511e-02 -7.54315918e-03
      -1.93421599e-02 -8.88690911e-03 -6.60126656e-03 -1.36473654e-02
      2.00580601e-02 -5.51050482e-03 1.73199680e-02 -3.22865555e-03
      3.48644629e-02 -5.33894286e-04 -1.39263796e-03 -4.35045076e-04
      5.29068476e-03 -3.07732844e-03 -1.47559466e-02 1.22875459e-02
      -2.25582514e-02 2.35686563e-02 -1.15113044e-02 -4.86103259e-03
      9.02525149e-04 -9.97552462e-03 -1.65771542e-03 -6.61295652e-03
      -1.41112469e-02 -4.32395330e-03 2.25462876e-02 -1.46994144e-02
      5.33763506e-03 6.46609627e-03 -1.28655201e-02 -1.58933215e-02
      -2.84687411e-02 -8.63705203e-03 -3.67774516e-02 -3.98804666e-03
      -3.07068564e-02 -1.62616223e-02 1.24660945e-02 -1.24855936e-02
      -8.60676728e-03 -7.39494106e-03 1.61633850e-03 3.11933621e-03
      5.01066521e-02 2.02210005e-02 3.55460644e-02 2.49272063e-02
      1.21028419e-03 -1.20885149e-02 -3.52601074e-02 -3.87863405e-02
      -3.93873490e-02 1.37243085e-02 5.84534893e-04 9.48091131e-03
      1.31287631e-02 3.80064640e-03 -1.35944448e-02 -1.20960800e-02
      1.19083077e-02 4.84596658e-03 1.78745314e-02 -6.03025686e-03
      9.33023077e-03 3.34441140e-02 -1.20079592e-02 -1.24862548e-02
      -9.19644721e-03 -7.61401653e-03 -3.99008580e-03 2.60801613e-02
      -1.15899770e-02 2.14965660e-02 5.40533662e-03 -7.66871357e-03
      -1.96633656e-02 -2.63050254e-02 -1.84379723e-02 -1.45092392e-02
      3.87109257e-02 1.72068048e-02 -3.31811910e-03 2.25154377e-04
      1.16517004e-02 -7.82204047e-03 -1.23280017e-02 6.91412379e-06
      4.16884664e-03 3.95899229e-02 2.58832704e-02 -4.86729154e-03
      -1.13825826e-02 -1.63986795e-02 -6.71851588e-03 2.23127641e-02
      1.40964556e-02 1.45051442e-03 2.91448105e-02 1.08326990e-02
      8.98467004e-03 -1.03748655e-02 -4.04765643e-03 -3.56479868e-05
      5.09569142e-03 4.63827560e-03 -8.19017366e-03 -2.15493655e-03
      -5.67177217e-03 -1.06094098e-02 -1.59059130e-02 -1.31307663e-02
      5.73224854e-03 2.32334039e-03 2.72873556e-03 2.66329595e-03
      7.40457028e-02 1.78065598e-02 -6.54967909e-04 -1.11717777e-02
      -7.42437597e-03 3.81782767e-03 -5.35783637e-03 -1.02493763e-02
      -9.91074741e-03 3.88344266e-02 1.13583645e-02 4.95118182e-03
      -1.80469230e-02 -8.57195258e-03 5.90964593e-03 7.99890084e-04
      1.67041849e-02 5.22564771e-03 2.87973210e-02 5.74639440e-03
      -1.42028891e-02 -2.72212606e-02 -1.62976887e-02 -8.06302484e-03
      -9.81576648e-03 -1.13394251e-02 -2.34352387e-02 1.74682923e-02
      -1.25224618e-02 -2.28681657e-02 -1.42635498e-02 -4.47800569e-03
      -1.71744940e-03 -2.32598763e-02 -4.33165766e-03 -2.52515753e-03
      5.85279390e-02 2.53405813e-02 2.22613569e-02 1.26069947e-03
      3.42079875e-04 -2.72730440e-02 -2.69807000e-02 -7.64667429e-03
      -7.23597035e-03 4.92627509e-02 -1.36189663e-03 1.58597510e-02
      -1.34359708e-03 -3.48296482e-04 5.26582543e-03 -5.39576588e-03
      3.94561066e-04 -1.12530440e-02 2.06649192e-02 5.33833168e-03
      1.80135807e-03 2.21250206e-02 -4.48058546e-03 7.47400336e-04
      -2.54072919e-02 1.87502038e-02 -6.68824534e-04 1.15116425e-02
      -1.99368875e-03 3.01818438e-02 1.05720265e-02 -1.49140377e-02
      -8.97143222e-03 -6.79219281e-03 -2.72968737e-03 4.33367770e-03
      4.82752882e-02 1.80027110e-03 4.01554815e-03 -3.93696269e-03
      1.39226913e-02 2.42207013e-03 -4.44546789e-02 -2.15754788e-02
      -2.84305727e-03 3.55524160e-02 1.29860668e-02 1.44264626e-03
      -2.09679883e-02 5.58817573e-03 9.85920988e-03 -1.47287278e-02
      1.05013438e-02 8.64620320e-03 1.36145297e-02 1.03995726e-02
      1.65480729e-02 8.15560110e-03 1.47723239e-02 1.49505679e-02
      -3.49367782e-02 -1.34156942e-02 2.06901366e-03 4.17188136e-03
      5.84355602e-03 -1.29710687e-02 -4.16238187e-03 1.31121418e-03
      -1.18252286e-03 -2.37310734e-02 -3.53666302e-03 3.90245230e-04
      4.20533791e-02 8.70624091e-03 1.27921207e-02 -8.38213414e-03
      -1.79271796e-03 -2.30992120e-03 -1.24155115e-02 -2.29398516e-04
      9.68360342e-03 2.85782982e-02 -1.83388169e-04 1.99589841e-02
      -1.80741716e-02 2.84633978e-04 2.05904618e-02 -1.35092868e-03
      6.56596338e-03 6.32347493e-03 1.83576718e-02 1.65657606e-02
      1.06497128e-02 4.11482248e-03 1.69954672e-02 -9.06137191e-03
      3.97716649e-03 -4.98794310e-04 -4.09309613e-03 1.31873200e-02
      -6.93510892e-03 1.85013730e-02 -9.93699953e-03 3.65129090e-03
      1.41118690e-02 -1.48136839e-02 -7.25735724e-03 8.67695548e-03
      2.07460634e-02 -8.16082861e-03 -8.71347380e-04 -8.47656839e-03
      2.23306138e-02 1.86053887e-02 8.60246643e-03 -2.23111501e-03
      -1.00054378e-02 2.82269381e-02 -1.76152848e-02 -1.32646961e-02
      -7.39217130e-03 2.95658987e-02 9.97069199e-03 3.43930256e-03
      3.67433717e-03 -3.80436098e-03 7.16536911e-03 -1.13700824e-02
      3.46339913e-03 -5.43981604e-03 2.57964600e-02 -1.22392597e-03
      -9.63990390e-03 6.12486945e-03 3.00424593e-03 8.11389554e-03
      -7.44719105e-03 -1.29225897e-02 -5.13444375e-03 2.38437504e-02
      2.64803842e-02 1.33519294e-03 -7.90802948e-03 1.37552537e-03
      3.06527410e-02 -1.40290884e-02 2.24372558e-03 -6.53796224e-03
      2.30686367e-02 3.70019786e-02 5.59260463e-03 -3.05577647e-03
      -1.79099757e-02 1.74120348e-02 -8.20985530e-03 2.32108328e-02
      1.99271087e-03 3.41224559e-02 7.75929773e-04 -9.81455296e-03
      -8.21808004e-04 -3.23270820e-03 2.22356822e-02 -6.52202871e-03
      -1.42185960e-03 2.86381110e-03 5.23347454e-03 3.80089477e-04
      -6.64855121e-03 -9.85533185e-03 -5.98586397e-03 2.23985203e-02
      6.06528251e-03 2.23547332e-02 -2.06065029e-02 -8.66600778e-03
      2.75644287e-02 -4.98827919e-03 -3.27465357e-03 -2.99937706e-02
      2.35679708e-02 1.61094312e-02 1.67582445e-02 8.99691042e-03
      4.04651649e-02 7.94874132e-03 6.14953879e-03 1.49896706e-03
      -4.04550210e-02 2.29350384e-02 2.15553567e-02 2.55107358e-02
      -5.20795351e-04 3.38135362e-02 2.39910837e-02 -9.13983560e-04
      -1.66224353e-02 -2.47783586e-02 1.67497192e-02 6.13954896e-03
      1.32301962e-02 -3.12729068e-02 7.59789429e-04 1.79709978e-02
      -1.84838276e-03 1.65695269e-02 -2.11053770e-02 -9.37572680e-03
      -1.39054586e-03 1.85046718e-02 -2.62598768e-02 7.86285195e-03
      -1.10322339e-02 -4.08352260e-03 -1.06973283e-03 -1.81018449e-02
      4.84833233e-02 3.71760614e-02 2.97757494e-03 -3.82352993e-02
      -1.87621592e-03 4.40069009e-03 -1.31152719e-02 8.16064188e-04
      -1.59181710e-02 4.99192029e-02 3.95519771e-02 1.58589222e-02
      -4.88216728e-02 -4.58609872e-03 -1.57924984e-02 -2.88775209e-02
      1.33218560e-02 -1.83399748e-02 1.78578068e-02 9.67281219e-03
      -1.44110024e-02 -4.67935577e-02 -6.18467154e-03 -1.26287462e-02
      -3.50252725e-02 -2.54357303e-03 -2.72344686e-02 1.75358374e-02
      1.39782960e-02 -1.77786648e-02 -4.69702855e-02 1.40898330e-02
      3.60014639e-03 -8.45287368e-03 -1.42291551e-02 -3.19416970e-02
      3.79678644e-02 1.67107824e-02 2.24602059e-03 -3.82826589e-02
      3.01266275e-03 2.51929183e-02 5.09800576e-03 7.31480401e-03
      -2.10497715e-02 3.27917933e-02 -3.75178945e-03 -9.35195386e-03
      -1.64382905e-02 2.33533531e-02 -9.21705621e-04 -2.92978641e-02
      -1.89561229e-02 -5.35804853e-02 -3.77839617e-03 -6.54851412e-03
      -4.80095716e-03 -1.96380708e-02 3.00919656e-02 2.39264127e-02
      -1.39972577e-02 1.98034048e-02 -2.54982542e-02 -1.95254906e-04
      -1.42149786e-02 4.66304226e-03 -2.12367177e-02 4.82886694e-02
      1.84089951e-02 -8.80787149e-03 1.72539521e-02 -8.32932070e-03
      2.33965423e-02 1.41417114e-02 1.68158785e-02 -1.87344252e-04
      2.34075300e-02 1.03066061e-02 -2.61389874e-02 -1.01426954e-03
      -1.21020023e-02 2.41445042e-02 -1.67104264e-03 3.01771332e-03
      -1.03981942e-02 -4.23970632e-03 1.41008375e-02 -1.63617898e-02
      9.05953255e-03 6.80859154e-03 1.74953453e-02 1.59554929e-02
      1.80507135e-02 -3.03905644e-03 1.95670575e-02 3.42534622e-03
      -2.04578955e-02 7.33841490e-03 -2.53996719e-02 -1.48333386e-02
      -6.17678510e-03 1.04832258e-02 -1.39302406e-02 2.83609051e-03
      7.45927542e-03 -1.52845597e-02 -8.33285972e-03 -4.42779111e-03
      5.00346385e-02 1.64276026e-02 -5.04976418e-03 -9.54794697e-03
      -2.33896654e-02 -2.23357114e-03 -6.06279913e-03 6.08732924e-03
      8.46337806e-03 3.20598134e-03 3.58943851e-03 2.04722444e-03
      1.27474647e-02 -1.30895094e-03 -7.40598538e-04 -4.00559464e-03
      1.98239088e-03 -1.58774052e-02 1.99377351e-02 2.19603796e-02
      -4.70716972e-03 -8.52649752e-03 2.75416940e-04 -2.40213168e-03
      4.84682573e-03 1.09662358e-02 -2.63464535e-05 -4.84305015e-03
      7.49870809e-03 2.82308855e-03 1.09898830e-02 8.95743538e-03
      -4.16957773e-03 -1.22530758e-02 -4.78451420e-03 -9.16645769e-03
      2.24144701e-02 -2.18422431e-03 1.14152916e-02 1.92207042e-02
      5.62160555e-03 -6.30642474e-03 -2.66307942e-03 -1.27422055e-02
      -1.62837468e-02 7.61208171e-03 1.20962912e-03 -1.30648795e-03
      1.36561710e-02 1.79134607e-02 7.45497551e-03 -3.17794867e-02
      -1.51285715e-02 -8.23768860e-05 1.79259684e-02 1.10075027e-02
      4.70372848e-03 1.06625827e-02 2.75548659e-02 -6.41591707e-03
      -1.88972615e-02 -9.53250937e-03 -3.12477606e-03 -7.38409627e-03
      1.39186783e-02 -8.71081464e-03 1.39392903e-02 1.98400076e-02
      -1.52203962e-02 -1.11740641e-02 -1.59199927e-02 -2.18350850e-02
      2.78441980e-02 1.20992998e-04 8.08443595e-03 9.61025618e-03
      2.47752992e-03 -2.50851959e-02 4.27705236e-04 -5.13427099e-03
      -2.61363424e-02 4.70926194e-03 -1.50914891e-02 -1.20988237e-02
      -8.42768140e-03 -2.38371734e-02 -1.62984263e-02 -9.75524599e-04
      3.06125917e-02 2.35634744e-02 2.76658703e-02 2.22415961e-02
      1.02287775e-03 8.69980641e-03 -1.81817799e-03 2.07383884e-04
      4.50625159e-02 4.83128205e-02 2.75619589e-02 1.74843948e-02
      -1.39524322e-02 -1.88478436e-02 -1.15931556e-02 -2.99400967e-02
      1.16696516e-02 3.87608707e-02 2.90651526e-02 1.69349797e-02
      2.84591671e-02 -9.71737504e-03 3.27766594e-03 1.42291412e-02
      -8.46714247e-03 8.90582055e-03 2.99119782e-02 2.27347966e-02
      5.06134063e-04 -1.51435542e-03 -1.29169011e-02 -3.56759271e-03
      -6.28434634e-03 -1.00327039e-03 2.46509854e-02 5.71435243e-02
      4.93404418e-02 1.71788950e-02 2.07494702e-02 -6.74010767e-03
      -1.06307864e-02 -1.05492668e-02 5.75627852e-03 6.87694456e-03
      1.33291194e-02 -7.34374579e-03 -4.88455556e-02 -3.13534364e-02
      -3.33482027e-02 -1.39389746e-02 -1.64178088e-02 -1.39118098e-02
      2.67641190e-02 6.40263557e-02 3.90033945e-02 9.63691529e-03
      2.73971912e-02 -1.61684619e-03 7.00614881e-03 3.01949494e-03
      1.44438921e-02 5.09055238e-03 2.24976670e-02 7.20754126e-03
      -8.71610455e-03 -1.56079261e-02 -2.23874878e-02 6.87917272e-05
      6.74446905e-03 4.23161546e-03 2.87914593e-02 1.92867313e-02
      2.51906384e-02 -2.95565818e-02 -1.47200590e-02 -2.95463093e-02
      3.48625588e-03 2.51062470e-03 -8.26985110e-03 2.01685186e-02
      5.32937422e-03 2.21013185e-02 -3.47060710e-02 -9.92440898e-03
      -3.55583318e-02 7.84266368e-03 2.26533432e-02 -2.78922706e-03
      6.64658239e-03 1.51959900e-02 9.77428723e-03 -3.91219603e-03
      2.69975178e-02 1.85870379e-03 -4.14081803e-03 -3.22432560e-03
      1.21919550e-02 2.88513675e-03 1.34311821e-02 4.86467034e-03
      -2.19627880e-02 1.04668299e-02 -2.53090495e-03 -3.71323735e-03
      5.19572059e-05 1.71767250e-02 2.21473631e-02 1.48673952e-02
      2.22238014e-03 -2.94544287e-02 1.37241781e-02 -7.18146563e-03
      6.84633339e-03 1.80164017e-02 1.25257289e-02 1.79470275e-02
      3.70188281e-02 -1.74852405e-02 -4.95700389e-02 9.14366730e-03
      -8.53626337e-03 -4.14735609e-04 2.62824483e-02 1.95241943e-02
      1.54393204e-02 1.89990364e-02 -3.05613154e-03 -2.57089827e-02
      1.80884413e-02 -6.34252932e-03 -5.21091186e-03 9.43526533e-03
      6.73789671e-03 5.56870457e-03 1.70480795e-02 2.27594748e-02
      6.80956466e-04 2.77660154e-02 3.49280797e-03 2.51382496e-02
      1.65051948e-02 -1.09198829e-02 2.26273257e-02 3.45681049e-02
      1.18128294e-02 -4.29841429e-02 -3.18958075e-03 -6.60538534e-03
      -2.14794753e-04 1.35001289e-02 2.58772280e-02 5.11942664e-03
      3.44982669e-02 8.28213710e-03 -2.18368284e-02 1.49921617e-02
      -1.00156832e-02 1.08268084e-02 -2.16458030e-02 -2.39462149e-03
      1.82250293e-03 1.65235326e-02 1.63745992e-02 1.07660610e-02
      3.03610843e-02 1.08278636e-02 2.23647058e-02 -1.77195773e-03
      -1.85346487e-03 -1.16118174e-02 -1.86332855e-02 -8.64773523e-03
      -2.78037367e-03 3.15842889e-02 1.69599168e-02 7.02262670e-03
      -2.12083515e-02 -1.92922854e-03 -1.41049204e-02 2.44845934e-02
      -1.25633180e-02 -1.11668836e-02 1.68274418e-02 7.27867335e-03
      1.86765809e-02 2.40275683e-03 3.57387168e-03 -2.86609884e-02
      -6.71731401e-03 -1.80127155e-02 -1.68387480e-02 6.00582128e-03
      1.30592836e-02 3.44312787e-02 4.40021371e-03 -2.23248024e-02
      8.77557788e-03 1.75157597e-03 7.85810035e-03 7.07606412e-03
      4.78106886e-02 2.37263050e-02 9.84828733e-03 -9.08815116e-03
      1.83641165e-02 -5.79558453e-03 -2.61685433e-04 2.36660521e-03
      -1.72981974e-02 1.82589125e-02 -1.28655760e-02 9.13600554e-04
      -3.80169041e-02 -5.98634221e-03 -6.56653009e-03 -3.87625681e-04
      2.75774649e-03 1.70044769e-02 3.12200505e-02 1.76114999e-02
      4.11417112e-02 2.01355498e-02 -1.17222238e-02 4.11528490e-05
      -1.59740560e-02 1.26124434e-02 3.23197548e-03 8.27770028e-03
      -1.23477643e-02 -5.91895357e-03 -6.68592053e-03 -8.87909811e-03
      4.44331905e-03 -1.09092775e-03 -2.28436873e-03 -9.32054408e-03
      2.96605527e-02 -1.93644203e-02 -8.33293889e-03 -3.37768123e-02
      1.22434301e-02 -1.03838565e-02 -7.99209997e-03 1.04075717e-03
      7.02247769e-03 4.78362404e-02 2.90755555e-03 -2.14655395e-03
      -1.85743626e-02 2.81571057e-02 1.15446281e-03 4.49160440e-03
      1.60277821e-02 1.79307107e-02 2.24813335e-02 -2.04803981e-02
      -9.55264550e-03 8.72873701e-03 -2.01123231e-03 2.15384076e-04
      9.83710866e-03 1.60209648e-02 3.53303552e-02 3.09625473e-02
      -6.69465261e-03 1.80291152e-03 -1.02063939e-02 1.27076004e-02
      -2.39878055e-02 -3.24388780e-02 1.05252909e-02 -1.57075422e-03
      4.68946807e-02 -2.66701076e-03 -3.50499991e-03 -8.03131983e-03
      1.04596522e-02 -1.44506413e-02 -3.71362641e-02 8.37775040e-03
      2.04528198e-02 7.07885623e-02 1.24197574e-02 9.52046178e-03
      -1.90235563e-02 -1.06019136e-02 -3.43584525e-03 5.89591404e-03
      3.04957069e-02 2.69096028e-02 2.82265190e-02 -7.96892866e-03
      -1.61286965e-02 -3.10845524e-02 -8.70442763e-03 -1.79335568e-02
      -7.66113447e-03 2.09629666e-02 2.53149979e-02 4.60192487e-02
      1.74665824e-02 1.06678540e-02 -9.25192330e-03 -1.56990606e-02
      -9.88168828e-03 -1.20306388e-02 -5.21382550e-04 3.12578515e-03
      6.67672828e-02 1.78271215e-02 1.23761296e-02 -3.93856578e-02
      -3.36410180e-02 7.47495447e-04 -1.41051626e-02 2.40072869e-02
      -1.16152596e-02 2.34978478e-02 5.74025931e-03 2.21941732e-02
      -2.69637909e-02 -2.04880480e-02 -2.90564424e-03 -3.28907231e-03
      2.46134643e-02 1.17884558e-02 3.80159020e-02 2.08097678e-02
      2.23349836e-02 -2.37629469e-02 -3.52401361e-02 5.24260756e-03
      2.20594741e-02 2.74471641e-02 2.72158743e-03 1.54314293e-02
      4.11649141e-03 3.27632725e-02 -1.10747963e-02 -1.78533271e-02
      -1.98351983e-02 -2.08278149e-02 1.93173625e-02 -1.78244952e-02
      2.62465887e-02 -3.98216303e-03 -3.51226074e-03 -2.58096904e-02
      -1.10348416e-02 -1.16321370e-02 -2.54652295e-02 -2.18386319e-03
      -2.53716446e-02 2.33485680e-02 -6.78899884e-03 -1.48883490e-02
      -1.65385157e-02 8.50677956e-03 -1.34987966e-03 -5.89474570e-03
      1.32789444e-02 -2.82157995e-02 2.82326415e-02 2.00901795e-02
      3.37610207e-02 3.05011938e-03 5.20432880e-03 -1.56045929e-02
      -2.71919500e-02 2.08840775e-03 -2.11161878e-02 1.78115647e-02
      3.19633372e-02 4.44980264e-02 5.64611470e-03 -2.96253804e-03
      1.44021176e-02 -1.06976125e-02 1.14018619e-02 -3.00833471e-02
      5.27972309e-03 5.66058233e-03 -1.05705606e-02 8.37527507e-04
      2.84465663e-02 2.55299043e-02 8.76859296e-03 1.77528113e-02
      -6.87590148e-03 2.52011288e-02 -1.33092450e-02 -5.57241263e-03
      -1.85196176e-02 4.59292158e-02 -2.03182036e-03 -6.09640125e-03
      6.23278413e-03 -1.83876622e-02 8.49554967e-03 2.67949216e-02
      3.48230973e-02 1.08642140e-02 3.23815830e-03 -3.81322321e-03
      -7.91221391e-03 1.50095875e-04 -2.15961691e-02 2.17740107e-02
      1.59550644e-02 1.24811847e-02 9.62480158e-03 2.07601972e-02
      1.17636044e-02 -1.27831623e-02 8.05404596e-03 1.91450920e-02
      1.66836288e-02 2.85213273e-02 1.01925498e-02 6.76286779e-03
      3.04805655e-02 -2.77398666e-03 -1.41116045e-03 6.13223389e-03
      -1.49522470e-02 1.15772299e-02 1.66070554e-02 8.35708249e-03
      -1.07294843e-02 5.48711186e-03 4.96774679e-03 -3.02437022e-02
      -5.59878163e-03 1.67722404e-02 1.40694976e-02 3.77904065e-02
      2.98941713e-02 1.08002014e-02 2.03229897e-02 3.65851587e-03
      -1.28988558e-02 1.87252334e-03 -1.24554876e-02 2.49845022e-03
      4.77862917e-03 -1.37806637e-02 -1.35379387e-02 2.10875962e-02
      -1.29150581e-02 9.73619800e-03 -4.17155912e-03 -1.96480863e-02
      2.28391718e-02 1.30599858e-02 -8.72307271e-03 -1.65315252e-02
      -1.51501810e-02 1.29603827e-02 3.18765230e-02 2.73994245e-02
      -8.24574567e-03 -6.43699057e-03 -9.03856650e-04 8.06251820e-03
      1.68926157e-02 4.22066776e-03 -1.93706769e-02 1.80008095e-02
      2.22280584e-02 2.00714171e-02 2.95719411e-02 4.30888729e-03
      -6.18109619e-03 -3.67340073e-03 -8.09998158e-03 -5.07345377e-03
      5.02626002e-02 4.52668965e-02 2.85034794e-02 -2.16611824e-03
      -1.29951444e-02 7.93985277e-03 6.49728067e-03 -1.78329013e-02
      2.45464053e-02 -1.57341885e-03 1.29277352e-03 3.79645405e-03
      5.84173156e-03 -8.68864730e-03 5.29565499e-04 -6.54724776e-04
      1.13135446e-02 6.63066516e-03 -2.74605267e-02 -6.01124251e-03
      -4.55202721e-03 1.29830027e-02 -1.69123546e-03 3.88192968e-03
      -3.37256445e-03 5.99461049e-03 6.19700588e-02 5.71515299e-02
      3.40341404e-02 2.69629713e-02 -1.76462159e-02 -2.94764489e-02
      8.96687713e-03 1.93992574e-02 3.57780010e-02 3.53219658e-02
      8.43756273e-03 6.50964538e-03 3.34394327e-03 -2.69497111e-02
      -3.31171826e-02 4.40543983e-03 2.28174217e-02 4.88798507e-02
      -1.33051230e-02 6.22830912e-03 6.83082342e-02 4.62614782e-02
      4.34308797e-02 9.50831827e-03 5.35431644e-03 -5.79008413e-03
      -1.82318334e-02 -1.94765236e-02 4.70103584e-02 7.52130300e-02
      3.67655195e-02 8.86787754e-03 -1.89923663e-02 -2.16016136e-02
      -1.46919768e-02 -4.15961742e-02 1.03568146e-02 1.02209896e-02
      4.87896241e-02 5.09960949e-02 2.14861594e-02 2.11170036e-03
      2.18834653e-02 2.67862324e-02 3.17765474e-02 -3.44699509e-02
      -1.76850371e-02 5.63487364e-03 -5.22106327e-03 5.00905095e-03
      -2.40201466e-02 -1.20223928e-02 -2.40220805e-03 -3.60249281e-02
      1.94707979e-02 6.73127696e-02 7.12443590e-02 2.58890875e-02
      1.47698680e-02 1.15624359e-02 1.07431635e-02 1.70378536e-02
      -5.35076298e-03 -7.38204923e-03 2.96249229e-04 -1.17173493e-02
      -3.22020762e-02 -2.46879458e-02 -8.89193825e-03 2.70424075e-02
      1.59792267e-02 -6.72936067e-03 1.09074991e-02 9.55980830e-03
      2.75497860e-03 -7.22563965e-03 9.66252293e-03 3.16476566e-03
      1.32714082e-02 2.40888670e-02 6.58849906e-03 2.17617787e-02
      -1.11383768e-02 -1.92820281e-02 -3.40715051e-02 -1.51890442e-02
      -1.02719218e-02 1.00766756e-02 1.20398065e-03 7.21808337e-03
      2.01339629e-02 1.76319685e-02 2.14269571e-02 -1.38460072e-02
      -3.07273143e-03 -1.46010949e-03 3.24346907e-02 2.73824260e-02
      1.32621210e-02 2.28217449e-02 3.16466056e-02 2.19454933e-02
      -1.34483324e-02 -2.05077347e-03 -2.47448310e-02 1.88277047e-02
      2.44219676e-02 -4.71088057e-03 3.33401784e-02 -8.77049170e-04
      2.52193436e-02 -1.47258071e-02 1.23984162e-02 -1.28555689e-02
      3.88090946e-02 2.31945645e-02 2.41527054e-02 1.04713431e-02
      -2.09794417e-02 -9.44523606e-03 -2.79094111e-02 -1.99630763e-02
      -5.46242520e-02 1.05775930e-02 1.04747331e-02 -6.41635794e-04
      3.70230339e-02 3.64990309e-02 1.53322611e-02 -8.28926265e-03
      3.33904028e-02 -1.24915666e-03 2.87739877e-02 2.33960934e-02
      2.38374695e-02 4.49563786e-02 6.27444163e-02 9.57182702e-03
      -8.10232386e-03 2.86130738e-02 1.45690385e-02 2.01599076e-02
      8.28756299e-03 3.83131020e-02 -1.71307439e-03 -5.59804775e-03
      4.47594514e-03 -2.00165305e-02 9.89051163e-03 -2.60592457e-02
      8.83570034e-03 -1.46177551e-03 -3.31600313e-03 1.12952804e-03
      -8.04046169e-03 -4.46172344e-04 -2.22566742e-02 1.73899978e-02
      -1.53145296e-02 7.30449706e-03 -3.37150693e-02 -3.28909000e-03
      4.57642674e-02 4.15761434e-02 4.73588444e-02 -3.44251259e-03
      2.86698453e-02 3.16765793e-02 1.67329907e-02 7.01347925e-03
      3.69453542e-02 2.97396164e-02 2.93401964e-02 2.65564751e-02
      -3.46174068e-03 2.06157882e-02 9.75806452e-03 3.60282883e-02
      2.54314449e-02 3.03372126e-02 -1.02069741e-02 -6.22500991e-03
      9.61469207e-03 -1.79017428e-02 3.89624350e-02 1.88603569e-02
      1.78724751e-02 -2.00061575e-02 -3.21536348e-03 -1.91508643e-02
      -1.83271728e-02 9.00742691e-03 -3.21330130e-02 4.22362499e-02
      8.07571411e-03 2.34388802e-02 -1.96449701e-02 -1.19167939e-02
      1.46517158e-02 2.42355727e-02 3.36461212e-03 -2.33495631e-03
      2.36002356e-02 1.75155867e-02 4.92691398e-02 3.98680046e-02
      4.45850678e-02 1.76450349e-02 2.68814992e-02 2.13442557e-02
      1.74668920e-03 2.16666870e-02 1.75508671e-02 3.60292904e-02
      4.61405180e-02 4.10597846e-02 -3.94378081e-02 -1.94761045e-02
      9.14663542e-03 -2.62906812e-02 4.53806594e-02 1.33153321e-02
      2.50293892e-02 -1.12376036e-02 -5.36821876e-03 -2.73726247e-02
      -2.73352042e-02 1.65744238e-02 -1.36252251e-02 2.55102552e-02
      4.95440606e-03 2.22662706e-02 -1.77166350e-02 -9.31885850e-04
      1.45183112e-02 2.07788236e-02 2.34648511e-02 -3.55625059e-03
      1.03874942e-02 -1.37932152e-02 1.42028201e-02 5.73365837e-02
      4.89638560e-02 2.44138315e-02 7.59215152e-04 2.26793699e-02
      -2.41391305e-02 -9.36004054e-03 -2.53516398e-02 7.68221030e-03
      5.89986145e-02 5.17941788e-02 -2.99980938e-02 -2.64256466e-02
      2.22703535e-03 -1.27487984e-02 1.64416563e-02 -2.55089346e-02
      1.62297692e-02 5.76365739e-03 5.01598231e-03 1.30315740e-02
      -3.43117211e-03 2.28657573e-02 -3.92318740e-02 1.24043785e-03
      -4.33931611e-02 1.25167957e-02 2.33027656e-02 4.38741818e-02
      1.03895012e-02 -2.36575399e-03 5.24003245e-03 -1.26575092e-02
      -9.58433840e-03 -3.87340635e-02 1.28590483e-02 5.71165495e-02
      1.63098760e-02 1.49880406e-02 1.93293262e-02 1.54692857e-02
      1.20520275e-02 5.11479098e-03 -2.53935903e-02 1.90825611e-02
      4.71100509e-02 2.25542914e-02 -3.51617236e-05 3.63639905e-03
      2.66863815e-02 -3.33187878e-02 -1.08786777e-03 -2.32862718e-02
      4.75715362e-02 5.39984629e-02 -5.21676242e-03 4.52608522e-03
      3.09683662e-02 2.14762986e-02 -2.81708129e-02 1.49541758e-02
      -1.36257019e-02 6.21885508e-02 5.72383888e-02 -9.80949216e-03
      3.98380980e-02 1.55976880e-02 1.76244136e-02 -2.19575805e-03
      -4.66908514e-03 -4.12762016e-02 -1.22478651e-02 1.15963621e-02
      3.71083096e-02 -3.98246245e-03 -6.48182957e-03 3.58573277e-03
      -1.64450705e-02 3.34139587e-03 -2.77481936e-02 -2.68248562e-03
      2.70261727e-02 2.82471739e-02 2.98951995e-02 1.87657997e-02
      1.37180109e-02 -4.76040617e-02 -2.26679910e-02 -4.11353670e-02
      1.74825508e-02 4.02727388e-02 3.57236713e-03 1.70049947e-02
      7.81451631e-03 3.34110670e-03 -3.48057561e-02 -2.00579464e-02
      -3.78346778e-02 2.69792955e-02 6.16322123e-02 7.47138588e-03
      -2.12896243e-02 -3.10895350e-02 -1.51531659e-02 -3.74228545e-02
      -1.62363779e-02 -4.10347991e-02 -1.67994518e-02 1.00806076e-02
      3.59213183e-04 2.31223647e-02 2.07590535e-02 9.03082173e-03
      -3.33761610e-02 -1.70402415e-02 -3.81907225e-02 -3.54976254e-03
      2.09012479e-02 3.81442974e-03 -4.83711157e-03 1.20197311e-02
      -1.32808019e-03 -3.30010802e-02 -1.13438759e-02 -3.94070111e-02
      2.27593128e-02 4.11321819e-02 -7.09931226e-03 3.48374955e-02
      8.29968080e-02 5.68733960e-02 -4.94123856e-03 -3.95544525e-03
      -4.87109600e-03 2.75112577e-02 6.05474003e-02 2.92658992e-02
      -1.98963787e-02 -1.01084402e-02 -1.11605553e-02 -4.28328104e-02
      -2.54286779e-03 -2.64456030e-02 7.47111393e-03 6.01381110e-03
      -2.60981750e-02 -4.32242043e-02 -3.54442038e-02 -3.33520360e-02
      -4.59080264e-02 2.87274551e-02 -1.07298978e-02 1.34225525e-02
      -1.14790658e-02 -2.48034410e-02 2.62602735e-02 6.53629601e-02
      3.74891981e-02 8.67098046e-04 1.11603476e-02 5.52499061e-03
      1.19599300e-02 4.71857563e-02 2.52181739e-02 9.37697571e-03
      3.29885781e-02 1.51892351e-02 2.18979046e-02 2.29253694e-02
      2.64036451e-02 1.70092322e-02 1.01504326e-02 5.26134903e-03
      -1.17996428e-02 -3.91578011e-04 -4.19105496e-03 -2.92350948e-02
      3.98414060e-02 3.49802561e-02 3.65713090e-02 2.72500142e-03
      2.07145922e-02 -2.69000530e-02 -4.48210016e-02 -3.12648639e-02
      -6.28043935e-02 2.67482977e-02 4.96949954e-03 3.23238852e-03
      -2.52305754e-02 -4.95386869e-03 1.61674898e-02 2.99201086e-02
      3.92254777e-02 3.17407399e-02 3.35202590e-02 4.23380248e-02
      5.77038415e-02 1.10812793e-02 3.18924487e-02 -3.20989788e-02
      -3.58588733e-02 1.61332695e-03 -1.81754772e-03 1.99335888e-02
      9.53135174e-03 2.05104495e-03 -4.27209213e-02 -8.77247285e-03
      2.14279667e-02 -2.38531791e-02 9.45447420e-04 8.96655023e-03
      3.08942366e-02 3.88885452e-03 3.39031941e-03 3.04996641e-03
      2.96252407e-02 2.14882996e-02 -2.76612304e-02 -8.68532155e-03
      -2.24666167e-02 3.88725405e-03 -1.57721825e-02 -3.73219773e-02
      -2.25932375e-02 4.15685587e-02 5.59534365e-03 -3.80273745e-03
      2.08892841e-02 2.44664475e-02 3.34199741e-02 5.18305134e-03
      3.37227038e-03 1.31987920e-02 8.25092010e-03 9.96121671e-03
      -7.61224702e-03 7.12765194e-03 1.30289393e-02 5.26611833e-03
      9.62083926e-04 -1.23705789e-02 -1.65345846e-03 1.57764405e-02
      -9.79968696e-04 -8.85287300e-03 1.56105803e-02 2.15684529e-02
      3.81746106e-02 -3.45549290e-03 -3.52666117e-02 -2.62802225e-02
      1.21146226e-02 -1.56241572e-02 1.29451463e-02 4.90125008e-02
      5.48507720e-02 1.83352120e-02 6.00048574e-03 -2.52220751e-04
      -1.73164587e-02 -2.56192535e-02 -2.19832864e-02 -2.59155259e-02
      4.59446805e-03 3.40641402e-02 4.82577160e-02 2.20990013e-02
      1.04379770e-03 -7.54337059e-04 -1.42395624e-03 -4.65565212e-02
      -3.47062536e-02 1.92882493e-02 2.85378918e-02 8.34708195e-03
      3.40668857e-02 3.34448032e-02 2.45448649e-02 -1.53167211e-02
      2.88943965e-02 3.04957479e-02 4.04585488e-02 2.14826204e-02
      -3.02424468e-02 -3.15190963e-02 9.47206281e-03 1.21435933e-02
      2.51970049e-02 1.24844629e-02 -3.34925018e-03 -6.74530165e-03
      -1.82258710e-02 -3.06577217e-02 -2.39298698e-02 2.33434252e-02
      3.10792178e-02 4.65263501e-02 1.87644199e-03 2.60769483e-03
      1.61349010e-02 1.41327819e-02 -2.53977720e-03 2.59172898e-02
      5.19748814e-02 2.89206617e-02 2.64585484e-02 1.89106371e-02
      8.45505018e-03 3.09594936e-04 8.53604171e-03 1.04627972e-02
      -6.37592457e-04 1.30562810e-02 2.05689240e-02 4.00623754e-02
      -2.01537721e-02 -8.48750863e-03 2.09098514e-02 2.19592396e-02
      2.14935783e-02 2.18559355e-02 2.65769046e-02 1.58652030e-02
      3.25680561e-02 -5.34852035e-02 -5.40717207e-02 -2.48058084e-02
      -1.83938127e-02 1.29608857e-03 -5.31260110e-03 2.80950381e-03
      5.87979506e-04 -2.61802338e-02 4.22302587e-03 3.78433727e-02
      5.78432940e-02 5.53972274e-02 2.02281941e-02 3.50295193e-02
      3.06710638e-02 1.91632472e-02 3.91468545e-03 -3.42941843e-02
      -1.26342233e-02 9.92153957e-03 1.76009648e-02 2.95335334e-03
      5.35355136e-03 -9.47256852e-03 -9.04836040e-03 -4.20355611e-02
      1.51859894e-02 -6.64763805e-03 9.59362183e-03 -3.05448356e-03
      2.49362104e-02 7.43769342e-03 2.24677138e-02 3.04753687e-02
      1.79282613e-02 8.16237368e-03 -2.17574444e-02 6.35801675e-03
      -1.87975448e-02 7.26874778e-03 -2.38393359e-02 -1.13296239e-02
      -2.11052522e-02 4.93739638e-03 8.94556381e-03 8.81544501e-03
      2.05237791e-02 2.43864283e-02 4.19020392e-02 2.65904758e-02
      7.16421474e-03 1.66604538e-02 5.89268422e-03 -9.51327290e-03
      -2.68085767e-02 -1.74907204e-02 -2.23351344e-02 1.75379664e-02
      -2.80292351e-02 -2.38100011e-02 -2.37361453e-02 -1.15389889e-02
      2.43854504e-02 -7.52957398e-03 2.97729000e-02 1.14260986e-02
      4.63760383e-02 -9.87693435e-04 2.88800858e-02 -3.98194621e-04
      1.15053048e-02 -1.11551257e-03 -2.08919272e-02 6.22706348e-03
      -1.09623056e-02 1.78104118e-02 -3.05394568e-02 -1.04249846e-02
      -2.05024034e-02 -4.20192722e-03 4.03195107e-03 9.28665604e-03
      4.08793874e-02 1.82169974e-02 5.33044785e-02 -5.83054777e-03
      1.28873270e-02 4.39041667e-03 -2.61177449e-03 2.51010904e-04
      1.31988917e-02 2.67400872e-02 -1.16557032e-02 1.89632587e-02
      -2.79283319e-02 -1.10003380e-02 -1.46284502e-03 1.10188778e-03
      7.65967276e-03 -4.97374043e-04 3.03618535e-02 4.76536108e-03
      4.30023447e-02 -6.56329095e-03 4.40994930e-03 -6.08056551e-03
      -1.34128460e-03 -4.23471117e-03 -4.59962245e-03 1.87319852e-02
      -2.18574307e-03 4.07051370e-02 9.75764450e-03 2.01582015e-02
      -2.13079117e-02 -1.07277920e-02 -2.16009095e-03 -1.29436320e-02
      2.90479697e-02 -1.03449905e-02 4.43713441e-02 -1.16700763e-02
      1.67684536e-02 2.06204094e-02 1.50612723e-02 -1.29623280e-03
      -3.26810479e-02 2.14759503e-02 -3.47879925e-03 5.72658554e-02
      -5.14654024e-03 2.41620862e-03 -2.25070938e-02 -1.27766479e-03
      -2.77065858e-02 -1.90304406e-02 1.00781349e-02 -5.55725349e-03
      7.94323087e-02 2.57334467e-02 1.56234587e-02 -2.15289071e-02
      -3.36598344e-02 -2.78027020e-02 -2.39171516e-02 2.14493740e-02
      -8.42681620e-03 6.34562075e-02 2.86281090e-02 2.65367553e-02
      -2.45079957e-02 -3.25304195e-02 -9.55537986e-03 -7.94359576e-03
      2.48552375e-02 3.01588792e-02 7.72932991e-02 2.61024362e-03
      4.54824511e-03 -2.93449368e-02 -1.78685579e-02 -8.44137836e-03
      -1.75567530e-02 1.84941255e-02 3.36393788e-02 5.07223420e-02
      2.89227883e-03 8.46361648e-03 -1.12340646e-02 -6.39836304e-03
      -4.68184873e-02 -9.03060474e-03 2.09557489e-02 -1.99456345e-02
      5.45054860e-02 1.49208652e-02 4.19296660e-02 -1.54091390e-02
      -1.81963388e-02 -1.85017549e-02 -6.26228005e-03 1.53008970e-02
      -1.67776793e-02 2.81751193e-02 1.42876646e-02 5.16441166e-02
      5.82882250e-03 1.20276483e-02 -2.17056442e-02 -1.34864654e-02
      2.24181041e-02 8.59906990e-03 3.45950909e-02 -5.58973849e-03
      2.37898361e-02 -2.68552769e-02 -1.04103824e-02 4.96867439e-03
      1.27003314e-02 4.27039526e-02 6.61141472e-03 3.09796426e-02
      -2.04666867e-03 4.23190109e-02 2.12484412e-03 2.28592148e-03
      1.27073023e-02 -3.59239057e-03 -7.11182598e-03 -1.86285656e-02
      1.51095074e-03 -2.20566560e-02 3.41484845e-02 1.58297699e-02
      2.78117266e-02 2.93808449e-02 9.43666603e-03 1.54173700e-02
      -2.74116360e-02 -2.21272139e-03 -3.43021974e-02 1.89536065e-02
      2.09176987e-02 4.25230302e-02 3.13330628e-02 -2.79436610e-03
      3.64344544e-03 -2.51666717e-02 2.10666447e-03 -4.32934836e-02
      1.24919238e-02 8.72093998e-03 2.06145532e-02 2.89660748e-02
      -1.32708699e-02 -7.19506899e-03 -2.06702463e-02 2.99187005e-03
      -3.96756716e-02 2.19924971e-02 2.82493159e-02 2.59073768e-02
      1.86034553e-02 9.61421523e-03 1.66769493e-02 -3.89694609e-02
      4.38473979e-03 -3.52216363e-02 2.09542718e-02 1.95030626e-02
      2.28461139e-02 -9.65184066e-03 2.00570337e-02 5.57517493e-03
      -3.43412384e-02 4.58934996e-03 -3.91770974e-02 1.59341637e-02
      2.65226029e-02 -1.43138680e-03 1.21399546e-02 -1.35155125e-02
      -2.06638556e-02 -3.77953388e-02 -9.17050149e-03 -2.90111117e-02
      1.74903739e-02 4.37645912e-02 2.92009041e-02 -5.06570050e-03
      3.03172530e-03 -1.78394411e-02 -4.48032916e-02 -4.93505911e-04
      -4.49071825e-02 1.56656448e-02 5.61528839e-02 1.51289329e-02
      5.69503568e-03 2.53402516e-02 1.82053284e-03 -3.02026458e-02
      -1.19702574e-02 -3.22717763e-02 -2.10723002e-03 8.37437715e-03
      2.58559152e-03 1.14915846e-02 2.75658369e-02 1.80436876e-02
      -3.60589698e-02 -1.68152284e-02 -2.84088887e-02 1.21076289e-03
      3.00135650e-02 2.84061562e-02 2.76118107e-02 2.17960663e-02
      2.75243400e-03 -3.50037925e-02 -1.48773985e-03 -5.04227616e-02
      -4.00660792e-03 2.64462065e-02 2.51475889e-02 2.31324285e-02
      3.25176530e-02 9.46320873e-03 -4.55427580e-02 -2.71636378e-02
      -2.78341454e-02 -7.10505480e-03 1.36671718e-02 1.70166045e-02
      -1.05582355e-02 -8.49905703e-03 -8.62373877e-03 -2.86460295e-02
      -1.08008450e-02 -3.16193625e-02 -2.60377652e-03 2.33669742e-03
      -4.91156289e-03 2.39534918e-02 5.32283336e-02 1.79055240e-02
      -1.06356507e-02 9.92195308e-03 -6.32324163e-03 1.06175737e-02
      4.29928079e-02 2.84142215e-02 1.37557462e-02 -1.40510709e-03
      -8.28206912e-03 -3.31849344e-02 -1.67316496e-02 -1.40686380e-02
      -2.54282970e-02 -1.73388273e-02 -1.85245962e-03 1.23509476e-02
      3.85249965e-02 9.97644197e-03 5.85243665e-03 2.59961793e-03
      1.27309971e-02 1.76739097e-02 3.05924956e-02 1.59285050e-02
      3.17164101e-02 4.11649011e-02 7.59559078e-03 -1.53193083e-02
      -2.17538420e-02 -1.92519668e-02 -1.42075270e-02 4.09914888e-02
      1.88131742e-02 1.91554818e-02 2.28286628e-02 2.22646259e-02
      8.17027781e-03 3.05227749e-02 2.19826810e-02 -2.06873007e-03
      1.86676923e-02 2.84305997e-02 -5.64490678e-03 1.58919077e-02
      -1.86244287e-02 -1.13312425e-02 -2.53011975e-02 -1.39379511e-02
      1.12081897e-02 3.56949084e-02 7.57301413e-03 -2.30421851e-04
      -4.36100829e-03 -1.24364102e-03 -1.59641926e-03 1.17729539e-02
      -1.90408416e-02 1.82983056e-02 1.46057978e-02 2.40035797e-03
      2.31022406e-02 1.72136296e-02 3.63693871e-02 4.49970141e-02
      8.02773386e-02 6.34787977e-02 4.26040776e-02 3.63143114e-03
      2.21753940e-02 -2.01328583e-02 -4.51535024e-02 -1.83725674e-02
      -1.26478262e-02 4.40448411e-02 -1.67252794e-02 -9.58200637e-03
      -5.71375638e-02 -2.02090312e-02 4.77640191e-03 -1.75881833e-02
      1.06976805e-02 4.72880863e-02 5.64915203e-02 4.27924842e-02
      3.49223949e-02 8.90236441e-03 7.89406523e-03 -2.78949887e-02
      -5.80160618e-02 -1.68489777e-02 3.93672148e-03 4.86326069e-02
      -1.07916328e-03 -2.41664872e-02 -6.55944273e-02 -3.32537740e-02
      9.45028674e-04 -1.19959032e-02 -1.91470212e-03 1.15121957e-02
      1.84014905e-02 2.23798603e-02 8.97595752e-03 1.98651440e-02
      2.50392705e-02 -6.56656688e-03 -2.17689145e-02 -2.11489294e-03
      -1.24424295e-02 1.27302445e-02 -1.05475988e-02 -1.61920059e-02
      -5.05458377e-03 6.96176151e-03 9.54917446e-03 2.20777304e-03
      1.72841863e-03 2.67048851e-02 -8.29557364e-04 1.12914704e-02
      -2.85842409e-03 1.49932597e-02 2.60719452e-02 -1.40434671e-02
      -1.53735401e-02 -1.69571198e-03 3.95611161e-03 -1.74173731e-02
      4.23904927e-03 -2.60743592e-03 1.13435788e-02 1.07364571e-02
      -1.98236052e-02 -1.70520078e-02 -4.52311337e-03 6.54275413e-04
      1.24566220e-02 -1.18874172e-02 -2.70416029e-03 5.34501905e-03
      8.48729536e-03 -1.72604509e-02 -1.76085718e-02 -3.07544530e-03
      6.55004894e-03 7.41236508e-05 1.30530924e-03 5.32479584e-02
      4.21637259e-02 2.46211439e-02 -6.25249417e-03 3.65854800e-03
      -3.32522136e-03 -7.09569198e-04 -6.35317178e-04 -1.97370686e-02
      -8.10437743e-03 -3.06413887e-04 1.25614079e-02 2.85100620e-02
      1.81349181e-02 6.62851753e-03 4.53725271e-03 -3.57868313e-03
      -1.97299607e-02 3.02488869e-03 3.80937732e-03 4.29049041e-03
      9.12262965e-03 4.93900990e-03 -1.30802218e-03 1.50491926e-03
      -9.51560214e-03 1.32417371e-02 4.43769358e-02 3.17858458e-02
      4.55211177e-02 3.40114757e-02 3.24444622e-02 2.00564228e-03
      4.09793854e-03 -4.63376939e-03 5.00196591e-03 1.91216227e-02
      1.43269813e-02 5.02177812e-02 1.82933565e-02 -1.45219835e-02
      -4.80826152e-03 -1.50470976e-02 -2.69269701e-02 -1.26662636e-02
      1.42742489e-02 4.65371786e-03 2.34231986e-02 1.50568914e-02
      -2.11994741e-02 -3.02422810e-02 -1.28487553e-02 -2.99381558e-02
      -2.11015344e-02 1.42899491e-02 -1.74795830e-04 4.01647179e-04
      2.63518523e-02 3.42249684e-02 4.08350006e-02 3.84622552e-02
      3.23730148e-02 4.63903397e-02 4.33345288e-02 1.29344659e-02
      -1.07923312e-04 -3.30265462e-02 3.84490704e-03 5.85956592e-03
      4.37543407e-04 6.13948214e-04 -1.38590215e-02 8.19465239e-03
      -9.11755860e-03 -4.22817990e-02 1.99009757e-03 -2.54492424e-02
      -1.97237991e-02 1.12444407e-03 2.84486264e-02 5.85749298e-02
      6.41536117e-02 3.73846516e-02 -1.19346241e-02 -3.30617763e-02
      -2.63039656e-02 -2.54570320e-02 -4.26772311e-02 1.76794529e-02
      4.71427590e-02 8.17313418e-02 2.06686705e-02 -1.69889722e-02
      1.69784967e-02 1.91217903e-02 1.65615510e-02 1.39115639e-02
      2.28732973e-02 -9.62898415e-03 -6.43169368e-03 1.15085915e-02
      9.34789609e-03 9.93216690e-03 -1.19539974e-02 -2.26448965e-03
      -2.80376077e-02 1.17480438e-02 -3.00606750e-02 -2.55012922e-02
      -2.61278674e-02 2.02859705e-03 2.22739764e-02 1.39861042e-02
      2.12283749e-02 -5.76933660e-03 1.12237120e-02 1.00305295e-02
      6.27088323e-02 4.47571389e-02 2.41595097e-02 3.37958313e-03
      -8.63368064e-03 1.08382311e-02 -2.41889488e-02 -8.83426145e-03
      -2.40677614e-02 -4.75951238e-03 4.03067702e-03 8.56776349e-03
      1.25208041e-02 2.70626675e-02 3.77556607e-02 1.60325944e-04
      2.18814053e-02 -2.84301862e-02 -1.05847092e-02 -1.54743632e-02
      1.33428555e-02 4.55937767e-03 3.24892253e-03 2.05566501e-03
      -3.34407054e-02 1.25802285e-03 -3.68006527e-02 -7.26962974e-03
      -1.75604150e-02 2.82858219e-03 2.74189506e-02 3.33369672e-02
      3.46445851e-02 -3.41045158e-03 9.85646993e-03 -1.76045541e-02
      2.47328039e-02 3.70379686e-02 3.73755656e-02 1.01586813e-02
      1.33512551e-02 2.13080123e-02 -2.65392940e-02 7.36878812e-03
      -1.69943087e-02 6.55061938e-03 2.13819146e-02 1.36158224e-02
      -7.06126820e-03 -2.28990968e-02 -9.99852549e-03 -3.13455611e-02
      3.06200478e-02 -2.29127258e-02 2.43602265e-02 2.02797237e-03
      1.64264273e-02 9.33744665e-03 -1.27374195e-02 2.51099188e-03
      -1.06120221e-02 3.57825868e-02 -2.26990748e-02 4.65813180e-04
      -1.18747205e-02 8.41169711e-03 1.75099857e-02 1.40006514e-02
      4.21287939e-02 -6.35952549e-03 4.09280360e-02 9.53191146e-03
      3.48599553e-02 2.25993712e-02 2.80466657e-02 2.85083633e-02
      3.74012962e-02 3.83924358e-02 -8.18429887e-03 1.66542567e-02
      9.35086887e-03 3.58031541e-02 2.78290883e-02 3.66467163e-02
      -6.27027964e-03 -1.43845165e-02 1.10103115e-02 1.57288834e-02
      3.16050760e-02 -1.14712380e-02 -3.45799839e-03 -8.48069694e-03
      -4.41477569e-05 -2.54363436e-02 -3.27904969e-02 -7.48130167e-03
      -5.40566305e-03 1.05831707e-02 -3.25151235e-02 1.24359280e-02
      3.21097579e-03 1.35571491e-02 3.51418033e-02 2.48070415e-02
      5.49717098e-02 8.43706168e-03 3.17180380e-02 2.29216069e-02
      2.54702568e-02 3.70915756e-02 4.09489609e-02 2.96350718e-02
      8.61606933e-03 2.63053812e-02 -9.04896390e-03 2.08565462e-02
      -2.00215587e-03 2.34845188e-02 1.76958945e-02 5.21119162e-02
      -3.23115997e-02 -1.47075607e-02 -1.23754714e-03 -1.86533970e-03
      5.00822021e-03 -2.52934452e-02 1.36282807e-02 -2.29625925e-02
      -1.20247351e-02 -2.09537838e-02 -2.46571861e-02 1.35050118e-02
      8.08546133e-03 2.48220321e-02 -2.23547872e-02 -7.87662622e-03
      -2.28623413e-02 -2.72424817e-02 4.20076400e-02 4.94293422e-02
      2.88803019e-02 -5.43516176e-03 8.54910072e-03 -1.91747124e-04
      2.05099247e-02 1.97468158e-02 5.26854433e-02 3.63864861e-02
      4.15131710e-02 1.41057875e-02 5.32093272e-03 5.46235451e-03
      -1.52266296e-02 6.49533235e-03 2.06399355e-02 2.58637257e-02
      -3.74488765e-03 -8.54025409e-03 3.11274407e-03 -1.15120476e-02
      1.60707887e-02 -4.48018685e-02 -2.46006586e-02 -3.27136628e-02
      -3.10967583e-02 3.51067744e-02 7.48494593e-03 9.14783310e-03
      -7.45872548e-03 3.30729261e-02 -4.10289429e-02 -5.65973064e-03
      -2.58232821e-02 1.56783836e-03 5.47690019e-02 4.51526642e-02
      2.30127368e-02 8.80733691e-03 1.85165424e-02 -1.51645765e-02
      -7.78854219e-03 -4.31687245e-03 2.27302108e-02 4.44687270e-02
      5.84445670e-02 3.17696035e-02 -3.20021831e-03 1.93816926e-02
      5.69402659e-03 4.94178990e-03 -5.65660745e-03 3.54366042e-02
      8.88098683e-03 -1.32389432e-02 -9.31984000e-03 -1.41204149e-02
      7.89295696e-03 -3.06515303e-02 -1.77681330e-03 1.75005067e-02
      3.30450101e-04 6.81945961e-03 -2.39656344e-02 -6.12266711e-04
      -1.71911307e-02 -2.87524867e-03 -2.71368567e-02 3.51278298e-02
      4.44361083e-02 2.07946282e-02 2.94236802e-02 1.65401362e-02
      1.25000328e-02 -9.54141282e-03 1.60610992e-02 1.75198901e-03
      -1.25737013e-02 -1.31439837e-02 2.62760893e-02 1.36289848e-02
      1.03087565e-02 1.43370843e-02 -9.52182629e-04 1.26463203e-02
      -5.39525412e-03 9.01187118e-03 -1.68318804e-02 4.12218599e-03
      3.18195373e-02 2.33089197e-02 1.01499679e-02 -2.73725782e-02
      3.87545372e-03 -3.74295413e-02 1.31928707e-02 1.37020033e-02
      4.01320383e-02 2.75095943e-02 3.69822830e-02 -3.97392781e-03
      -5.11233173e-02 -1.87773611e-02 -3.40522230e-02 -6.07081316e-03
      4.40395344e-03 2.29216889e-02 3.78485359e-02 2.35050712e-02
      -1.17976306e-04 -2.06825435e-02 6.36212574e-03 -2.38916110e-02
      1.34718907e-03 -1.96909159e-02 2.43569631e-02 2.67570447e-02
      3.15373614e-02 -2.61273328e-02 -3.74694131e-02 -3.64313601e-03
      -3.14560384e-02 -4.34570108e-03 -2.24900115e-02 1.14970496e-02
      2.96497922e-02 4.90191430e-02 3.39191407e-02 -4.15449366e-02
      -1.63494386e-02 -1.81960668e-02 -1.50194224e-02 -1.50059741e-02
      -4.72307624e-03 1.59790926e-02 5.40492721e-02 5.77010401e-02
      1.12545108e-02 2.20367755e-03 1.56481918e-02 3.10553377e-03
      2.61465497e-02 1.69609096e-02 2.03374568e-02 2.09193248e-02
      -7.62369204e-03 -5.89880794e-02 -1.86145380e-02 -3.43917012e-02
      -7.38570467e-03 -2.84784064e-02 -1.16382549e-02 1.41574303e-02
      1.45065701e-02 1.18010594e-02 -4.14564237e-02 -7.87684973e-03
      -2.79098246e-02 -2.74056918e-03 -2.44715102e-02 -6.87666098e-03
      2.27059834e-02 3.69631089e-02 2.79507786e-02 1.49991792e-02
      1.57217607e-02 1.36529468e-02 3.18635367e-02 5.58663942e-02
      4.98977229e-02 1.28407106e-02 1.64284799e-02 2.57285740e-02
      2.02019792e-02 2.68277600e-02 -3.42423236e-03 4.05713134e-02
      4.33203876e-02 2.30908804e-02 -6.49433723e-03 -1.32806906e-02
      -9.43050906e-03 -4.56491001e-02 -6.92090532e-03 -5.39342239e-02
      -1.46282166e-02 -5.10936545e-04 -9.41490289e-03 -1.23617165e-02
      -2.31362358e-02 -1.18766343e-02 -3.30355540e-02 -3.55843874e-03
      -5.05656861e-02 -1.20858820e-02 -2.03247666e-02 -5.68994693e-03
      1.47950435e-02 1.09095906e-03 3.11232451e-02 4.75908406e-02
      6.26692548e-02 3.05755250e-02 2.03449931e-02 5.83912572e-03
      9.20453388e-03 -1.93673128e-03 -1.48623809e-02 2.20824163e-02
      2.28118636e-02 7.01215342e-02 1.08795883e-02 -2.80218199e-02
      -5.45323528e-02 -1.26377167e-02 4.27024160e-03 -1.92964133e-02
      3.05841826e-02 6.27155788e-03 3.66664901e-02 4.72941576e-03
      -9.02135507e-04 -2.10283548e-02 -1.86001635e-04 1.55348554e-02
      -1.56674422e-02 1.39583955e-02 6.61489088e-03 1.55434376e-02
      -6.27114670e-03 -1.15958750e-02 -3.94970141e-02 8.36597290e-03
      1.11207059e-02 -9.02782846e-03 9.90343746e-03 3.46324518e-02
      1.81907676e-02 -6.13697618e-03 -1.76426105e-03 -1.65511575e-02
      2.40010768e-02 -5.91268810e-03 -9.07910056e-03 4.82684234e-03
      7.69484555e-03 -4.06868383e-03 -2.90836417e-03 -2.57701590e-03
      -1.42973661e-02 1.35583170e-02 2.18004966e-03 -1.87250432e-02
      5.07689826e-03 3.05051282e-02 9.87142790e-03 -7.18461489e-03
      -2.78637968e-02 -1.03654936e-02 2.43120641e-02 8.03036615e-03
      -1.68271619e-03 -3.26918252e-03 5.92185091e-03 7.75077706e-03
      -2.41023139e-03 2.26065284e-04 -7.87745416e-03 2.18588188e-02
      -5.39145293e-03 2.83647678e-03 1.14516467e-02 1.14450445e-02
      1.08153056e-02 -9.96821094e-03 -7.60853291e-03 -1.57737825e-02
      7.24485470e-03 5.08244941e-03 -4.68644919e-03 6.53497688e-03
      1.94711052e-02 1.89335290e-02 -1.26841906e-02 -1.25120189e-02
      -6.58217398e-03 1.03906104e-02 1.68892276e-02 4.85830715e-05
      -2.87635165e-04 -8.43095127e-03 9.42622870e-03 -1.93598913e-03
      7.87671097e-03 -1.13066323e-02 2.29959171e-02 1.92990676e-02
      -1.95850041e-02 -1.46847479e-02 1.21051334e-02 4.95172944e-03
      1.91215947e-02 7.92814232e-03 -3.82748927e-04 9.62277781e-03
      7.15615833e-03 9.99236130e-04 -1.73219290e-04 -8.63955542e-03
      9.43695661e-03 -5.13959583e-03 1.61325239e-04 -1.37727112e-02
      2.46449225e-02 -2.45923130e-03 -7.41910189e-04 6.89999806e-03
      2.87319487e-03 1.32820860e-03 -1.24581177e-02 -1.16516668e-02
      -2.51806788e-02 -1.68470852e-02 1.17918132e-02 -3.73854698e-03
      -9.67199821e-03 9.25494544e-03 2.55803093e-02 1.54666416e-02
      -4.96019376e-03 -1.16303854e-03 1.04922932e-02 -1.06590847e-02
      1.47782732e-02 1.54482387e-02 2.00026315e-02 1.95537880e-02
      5.64699760e-03 -6.84942491e-03 -2.14691181e-02 -5.21875499e-03
      -1.54599780e-04 -1.45953931e-02 6.90388354e-03 4.57956875e-03
      2.91906800e-02 3.29518877e-02 4.52866107e-02 -4.77673922e-04
      -6.38788240e-03 -3.42990868e-02 -2.86824983e-02 -1.03039267e-02
      -3.64490189e-02 1.53700141e-02 2.67017279e-02 6.61145076e-02
      1.00114411e-02 6.46136189e-03 1.33936852e-02 1.78827588e-02
      3.11603528e-02 1.56032399e-03 1.55575015e-02 1.66360475e-03
      -9.44405235e-03 -2.08573807e-02 9.72002465e-03 -1.57219134e-02
      -1.26004335e-03 1.53683836e-03 -2.11759880e-02 -1.79183634e-03
      -1.69052184e-02 -2.33533327e-02 -2.84525054e-03 -1.83126167e-03
      -8.91615171e-03 -9.79858451e-03 -1.00756409e-02 -4.35884111e-02
      -1.27285104e-02 -1.21100806e-02 4.56793681e-02 4.60187569e-02
      3.40330526e-02 5.72103029e-03 -2.90632416e-02 -3.01401205e-02
      -6.36605024e-02 -3.90053205e-02 -5.69424070e-02 2.56532128e-03
      2.39267126e-02 1.48878256e-02 1.46931699e-02 5.14334673e-03
      2.19307560e-02 6.73379516e-03 1.14630368e-02 -1.27286557e-02
      3.30512449e-02 4.68739793e-02 2.43310165e-02 1.70836970e-02
      -4.63124784e-03 -1.69481861e-03 -1.44269848e-02 -1.78836603e-02
      -3.11185680e-02 1.06535777e-02 4.43579145e-02 2.32874416e-02
      1.68666299e-02 -1.02510545e-02 -6.31920295e-03 -3.46271358e-02
      -1.69638284e-02 -4.30355705e-02 2.97347712e-03 5.12857363e-02
      2.37887222e-02 -1.59625115e-03 -4.70330648e-04 -3.35158058e-03
      -3.52575630e-02 -1.26763610e-02 -2.80521717e-02 -1.23544028e-02
      1.25526143e-02 1.56378665e-03 1.30950036e-02 -2.15165294e-03
      1.23603856e-02 1.29154827e-02 2.13548522e-02 -6.09167386e-03
      1.04521979e-02 6.27218783e-02 3.35129127e-02 -6.59832265e-03
      1.46017398e-03 -2.00385414e-03 -4.65476001e-03 1.89721473e-02
      -5.49176149e-03 8.95240717e-03 2.08593793e-02 5.73716825e-03
      5.28434385e-03 1.02219824e-02 8.44317395e-03 -1.21302567e-02
      8.55853874e-03 -1.28524173e-02 -1.17137982e-02 2.20779539e-03
      4.43366868e-03 3.41561390e-03 -9.49719222e-04 -6.59653684e-03
      -3.03489845e-02 7.35964626e-03 -1.17974253e-02 -2.88144895e-03
      3.76515882e-03 -3.04635265e-03 7.04366993e-03 1.85712297e-02
      1.00175478e-02 -3.90841672e-03 3.22177187e-02 2.62940489e-03
      1.47667686e-02 6.84335083e-03 1.36078438e-02 8.78125336e-03
      2.55771708e-02 -6.02148799e-03 -2.14059670e-02 2.48863213e-02
      2.78840563e-03 -1.49533832e-02 2.71174544e-03 -4.01454372e-03
      1.42663885e-02 6.50878763e-03 1.99776739e-02 -1.59479268e-02
      3.30395736e-02 1.13301240e-02 1.03789633e-02 2.63110381e-02
      -3.98275116e-03 1.37185911e-02 9.13903676e-03 1.39231971e-02
      -3.11147608e-02 1.45612275e-02 -8.13367683e-03 1.70839522e-02
      2.23449972e-02 1.46975853e-02 4.81455820e-03 3.02714836e-02
      8.17762688e-03 -5.67811541e-03 4.38515954e-02 -6.43614959e-03
      -1.65710282e-02 5.54012600e-03 1.11153862e-02 -6.52641058e-04
      1.65476333e-02 -4.88265185e-03 -1.42977480e-02 1.95576996e-02
      -2.47866940e-02 5.35252085e-03 -1.06492313e-03 4.70658205e-03
      3.69735458e-03 1.75980553e-02 1.61246248e-02 -1.70379747e-02
      5.82940830e-03 -5.09770354e-03 2.55350061e-02 2.80512888e-02
      3.32815498e-02 -1.08810402e-02 1.01344381e-02 1.42562343e-02
      -6.02968968e-03 1.32284109e-02 -2.22227592e-02 9.15342569e-03
      1.78512298e-02 -1.71220314e-03 8.48004874e-03 7.93766044e-03
      7.68533954e-03 4.80717374e-03 2.68505942e-02 -2.18660990e-03
      2.35000532e-02 1.48994057e-02 9.25007556e-03 -2.19322499e-02
      -1.72626309e-03 6.28219964e-03 -1.15336291e-02 3.47784124e-02
      -4.94130049e-03 1.83540024e-02 5.79836359e-03 -8.08403734e-03
      5.83333336e-03 1.21062770e-02 3.86836147e-03 -1.13295566e-03
      4.72835563e-02 -1.06075767e-03 -1.32493153e-02 -6.09045196e-03
      -1.20491544e-02 7.92666432e-03 1.49950655e-02 9.71586071e-03
      -1.71205550e-02 2.98583340e-02 1.73121653e-02 1.61381322e-03
      5.21222502e-03 1.20783662e-02 -1.94255114e-02 -2.36942973e-02
      -1.04150772e-02 -6.99187396e-03 4.27685045e-02 7.06853950e-03
      -1.34676211e-02 -9.83266253e-03 -2.02952810e-02 -1.41764544e-02
      -3.31396274e-02 -9.69916116e-03 -1.15306815e-02 3.40323597e-02
      2.82447832e-03 -7.39978068e-03 -2.49898201e-03 -2.17094645e-02
      3.80181288e-03 7.51333730e-03 1.65666137e-02 -8.49416573e-03
      4.42955010e-02 1.91736948e-02 5.30018378e-03 7.20879622e-03
      1.56910333e-03 9.85248247e-04 -2.70540323e-02 4.24607238e-03
      7.78447231e-03 5.24863489e-02 2.82890070e-02 1.73794739e-02
      -5.22493152e-03 -1.27024148e-02 -1.44525431e-02 -2.64239553e-02
      7.11632939e-03 2.32424447e-03 4.18487750e-02 4.10760473e-03
      -5.39572304e-03 2.27582012e-03 -2.31293868e-02 2.39833049e-03
      -2.39236653e-02 1.79902297e-02 1.48393735e-02 4.54990640e-02
      2.27943086e-03 6.06436143e-03 1.06793772e-02 -6.25861622e-03
      3.43586109e-03 8.23162962e-03 1.50552271e-02 1.28319012e-02
      4.18918915e-02 2.97665391e-02 1.78446900e-02 -9.27550893e-04
      -4.42347256e-03 -6.63777487e-03 -3.07259033e-03 -1.34648839e-02
      -3.30005353e-03 3.38717103e-02 9.75298230e-03 9.05589201e-03
      -9.23169777e-03 -3.95183964e-03 1.34791154e-03 -4.08042455e-03
      8.51991028e-03 3.38802636e-02 3.55142765e-02 1.88439880e-02
      1.67224221e-02 7.01885577e-03 1.83819886e-02 -1.28030060e-02
      -1.32623166e-02 -7.88408704e-03 -5.75701427e-03 2.46035475e-02
      2.03710496e-02 1.51823955e-02 -2.84524425e-03 -1.00548295e-02
      4.06602491e-03 1.42044108e-03 2.47343094e-03 2.65733339e-03
      3.34729180e-02 7.42396107e-03 2.72895787e-02 -1.53403077e-02
      -2.00411305e-02 5.67366416e-03 -2.04842654e-03 2.96349358e-02
      -1.23957191e-02 3.33688818e-02 1.24254767e-02 5.21083660e-02
      -1.86038110e-02 -1.94440540e-02 4.16367315e-03 -1.08221415e-02
      1.47112468e-02 -1.11495203e-03 3.99789438e-02 -1.55066780e-03
      3.28942388e-02 -1.04873748e-02 -2.39969511e-02 1.99530832e-02
      -3.48107703e-03 2.29336172e-02 -2.42994744e-02 1.18575823e-02
      1.68153252e-02 4.83725481e-02 -2.05356907e-02 -3.12631810e-03
      1.17874825e-02 -5.34389680e-03 1.70100778e-02 -2.36068498e-02
      4.79934700e-02 3.80835636e-03 4.33664694e-02 -7.19095627e-03
      -4.75764135e-03 1.67474449e-02 1.80839151e-02 4.07063551e-02
      1.23606194e-02 4.58322614e-02 1.37382010e-02 3.09303049e-02
      -1.84150748e-02 -6.21161365e-04 4.44027502e-03 -1.35824857e-02
      -1.51266716e-03 -5.46123460e-02 2.15588361e-02 5.69672743e-03
      2.40897220e-02 -1.44707011e-02 -2.74459226e-03 1.04256459e-02
      3.59738711e-03 4.81608650e-03 -1.14515824e-02 2.50560790e-02
      1.12117492e-02 -1.35748042e-03 -3.26678678e-02 -1.42877251e-02
      4.22621332e-03 -1.26572195e-02 3.69314812e-02 5.35394810e-03
      3.42964604e-02 5.91698848e-03 7.18116341e-03 -2.23951917e-02
      -1.84758287e-02 1.69916209e-02 -1.11363400e-02 2.56757643e-02
      1.19121689e-02 1.03306519e-02 2.82992832e-02 1.19024916e-02
      -2.93639675e-03 -2.94605969e-03 2.38415543e-02 -5.04180882e-03
      -1.56831322e-03 1.14183372e-03 1.75061915e-02 -4.66255890e-03
      -8.20041820e-03 -3.14220861e-02 -6.08792668e-03 3.29447612e-02
      -1.20122628e-02 1.43070426e-02 4.59574675e-03 1.98264676e-03
      3.57321948e-02 1.30306724e-02 7.66643509e-03 1.33994734e-02
      7.94852152e-03 -4.52987291e-03 3.84858926e-03 2.81618424e-02
      1.83690079e-02 4.72387328e-04 -1.67226549e-02 -1.04917549e-02
      3.39841209e-02 -1.76135954e-02 3.27771739e-03 1.10206874e-02
      1.17812436e-02 -6.92792283e-03 -3.71012534e-03 -6.27228431e-03
      -9.64800734e-03 5.79070020e-03 2.01603840e-03 -2.17603501e-02
      5.41545358e-03 1.70173775e-02 1.75158922e-02 6.81756437e-03
      -3.57412803e-03 -5.69042750e-03 9.84760933e-03 2.73586996e-03
      -3.66017371e-02 -2.94203614e-03 -1.63029600e-03 -5.33108180e-03
      8.31874181e-03 1.70550309e-02 -2.86679808e-03 -8.61993991e-03
      1.53316315e-02 6.39375066e-03 -4.30533476e-03 -1.86499227e-02
      -1.28257216e-03 -2.45153494e-02 1.52759987e-03 -1.39061629e-03
      1.32455351e-02 2.32838467e-02 7.06719700e-03 -1.09628523e-02
      -1.69632547e-02 1.04249828e-03 -6.97710318e-03 4.59524430e-03
      1.59223862e-02 2.14513298e-02 4.41775331e-03 -2.07916833e-02
      2.20769260e-04 1.62517326e-03 2.23177914e-02 -2.35767104e-02
      7.76972715e-03 -1.26366699e-02 2.71441205e-03 2.57257614e-02
      7.70068867e-03 -2.46481365e-03 1.87791847e-02 1.62606090e-02
      -2.16317885e-02 4.56892839e-03 -1.42965408e-03 4.22782177e-04
      -4.47769277e-03 -2.37534614e-03 7.98323005e-03 -5.88348275e-03
      2.54907124e-02 -6.50381844e-04 -4.66803322e-03 3.22486460e-03
      2.22797226e-03 -1.22583527e-02 1.64056085e-02 9.12192464e-03
      -1.24798492e-02 8.20809882e-03 -1.06046011e-03 2.46867817e-03
      -2.35357471e-02 -8.77477694e-03 1.50847388e-02 1.54044554e-02
      2.29498371e-02 2.72853323e-03 4.00961116e-02 1.91991273e-02
      2.01374721e-02 -2.89934524e-03 1.09554920e-02 -1.61036961e-02
      -5.28812548e-03 7.67613156e-03 -2.52592582e-02 -3.77560337e-03
      1.24776848e-02 1.95373204e-02 -1.15262922e-02 5.51223708e-03
      3.55241634e-03 1.43040419e-02 1.43502681e-02 -2.14314628e-02
      1.58492140e-02 7.16063054e-03 5.08484896e-03 -8.54560267e-03
      1.98593717e-02 2.00848971e-02 -4.33188817e-03 2.26142840e-03
      -2.71098241e-02 -4.41889744e-04 -1.90247204e-02 -1.62775759e-02
      1.05360337e-03 4.76722373e-03 -5.66307036e-03 -5.39950270e-04
      1.75866429e-02 -2.92841699e-02 8.22258275e-03 2.46515628e-02
      3.14603709e-02 3.57231731e-03 6.81064278e-03 1.09712640e-03
      1.24030812e-02 2.68468726e-02 -1.67891532e-02 -2.81298952e-03
      -5.05837286e-03 2.52962718e-03 8.48341224e-05 3.86458647e-04
      1.32030128e-02 -5.96155459e-03 6.27317373e-03 7.22551951e-03
      3.32903005e-02 -2.35722568e-02 -1.88295729e-02 1.76665727e-02
      7.88541324e-03 -9.08860844e-03 -8.52974597e-03 6.21836539e-03
      8.67594592e-03 2.10089441e-02 -2.49487981e-02 -2.05277093e-02
      1.22381290e-02 -2.97896052e-03 2.17239335e-02 1.33226737e-02
      1.81084406e-02 1.28463609e-02 4.15995866e-02 1.23973675e-02
      -3.57030262e-03 4.15655132e-03 -6.03215303e-03 -4.78640478e-03
      3.98304313e-03 6.93364360e-04 -3.08501767e-05 1.48362406e-02
      -1.77837443e-02 -3.01721711e-02 -1.52342422e-02 -2.36353260e-02
      -9.12015513e-03 -3.77426227e-03 1.07659511e-02 2.30988730e-02
      3.32171619e-02 -3.75136733e-03 -1.20315133e-02 3.90948504e-02
      1.14828860e-02 -8.90514441e-03 -3.20064276e-03 -1.02938050e-02
      -9.30352509e-03 3.96593697e-02 -7.36554014e-03 -1.73974782e-02
      1.01255784e-02 1.38996716e-03 -8.17569718e-03 1.35732135e-02
      1.48059614e-02 1.41681340e-02 3.70161720e-02 5.06014982e-03
      -1.92338936e-02 -4.81632678e-03 -6.08808221e-03 -2.67726723e-02
      -1.09049333e-02 -6.04519481e-03 -8.44492484e-03 5.00491522e-02
      -2.90633249e-03 -1.95447858e-02 -3.26357633e-02 -1.91798769e-02
      2.35448182e-02 1.03973690e-02 -1.28222276e-02 -2.02826448e-02
      3.95017155e-02 1.04886685e-02 3.17044556e-02 1.76641764e-03
      1.95340309e-02 1.28192697e-02 5.03318710e-03 -1.67753436e-02
      -2.27442198e-02 3.26358229e-02 -1.97696704e-02 -1.10616395e-02
      8.46469123e-03 8.35748296e-03 -2.22928468e-02 -2.18816493e-02
      -1.37174232e-02 -2.57699415e-02 4.85919975e-02 9.12405830e-03
      -1.55902642e-03 -2.08465923e-02 -6.61701895e-03 6.26962632e-04
      -3.13214548e-02 -1.30484523e-02 -2.80573256e-02 1.56074129e-02
      -1.56354867e-02 -6.01714663e-03 -1.68427881e-02 -1.05381962e-02
      -3.36666987e-03 2.03284174e-02 6.00536400e-03 -7.94820767e-03
      5.81461862e-02 -1.53650930e-02 -1.47826970e-02 1.20032113e-02
      -7.42559088e-03 -1.68273728e-02 -5.18864766e-03 -1.32950360e-03
      -1.58531517e-02 2.10639331e-02 -3.92043293e-02 -9.82368737e-03
      -1.45215411e-02 -2.32252069e-02 1.41698401e-02 -8.90641473e-03
      1.26545783e-02 -1.42674083e-02 2.79599410e-02 3.96164227e-03
      6.95565529e-03 9.99913178e-03 -8.42623413e-05 -6.52926136e-03
      -6.89985882e-03 4.53001168e-03 -1.55025832e-02 1.45964315e-02
      -1.76010765e-02 1.35069648e-02 1.06036942e-03 -1.89562533e-02
      1.17949015e-02 -4.53110057e-04 1.65439583e-02 1.51164262e-02
      3.49174142e-02 -1.06656468e-02 1.07570109e-03 -5.13624121e-03
      -9.17418953e-03 4.60470282e-03 -1.01502594e-02 8.90256092e-03
      -1.58257969e-02 7.37916632e-03 2.73268973e-03 -5.46193728e-03
      -8.58232006e-03 1.06218355e-02 5.72404312e-03 -4.54128487e-03
      1.92938913e-02 8.89529660e-03 2.93788593e-02 8.04829877e-03
      -2.46307440e-03 1.10946014e-03 -8.46873317e-03 1.33881681e-02
      -4.01556073e-03 2.10569408e-02 -1.01636155e-02 9.24243033e-03
      -6.86817523e-03 -1.52472565e-02 -2.05509793e-02 -8.86555109e-03
      6.15651160e-03 -1.73994675e-02 8.72715935e-03 -2.50449032e-02
      -2.92576803e-03 1.11678452e-03 -1.54910078e-02 -1.16737643e-02
      -1.83779595e-03 -5.18021770e-05 -5.22524444e-03 3.76822567e-03
      -8.57092626e-03 -8.22809339e-03 -1.00487238e-02 -8.57514795e-03
      -1.75108705e-02 -1.70062389e-03 2.09577400e-02 7.68254511e-03
      3.64957191e-02 -6.28867559e-03 -8.54350533e-03 -1.27559237e-03
      -3.54415271e-04 -1.01238182e-02 -6.69013988e-03 1.72275230e-02
      8.43670219e-03 2.43040789e-02 1.41799254e-02 -6.91965781e-03
      1.69528406e-02 2.94548422e-02 3.56126158e-03 1.62627008e-02
      -7.27066828e-04 -1.18750501e-02 -7.39576353e-04 -4.71229461e-04
      3.94660346e-02 -1.39559212e-03 -2.04116255e-02 -1.97375398e-02
      5.79891354e-03 5.31538436e-03 -2.45548002e-02 3.49990395e-03
      -5.92609216e-03 3.14601772e-02 -1.61150433e-02 -9.28841438e-03
      -4.07774840e-03 7.80669786e-03 -1.11188111e-03 5.35537675e-03
      1.85196344e-02 1.24293622e-02 2.39821002e-02 1.69740673e-02
      3.50141190e-02 -1.62813361e-04 -8.81061610e-03 -2.85811326e-03
      1.85166183e-03 1.99123863e-02 -1.81796104e-02 1.34185841e-02
      -8.98839161e-03 2.00780910e-02 1.72998945e-04 -1.22039290e-02
      1.12648343e-03 -7.99475051e-03 -1.55456190e-03 -2.21760594e-03
      4.74504717e-02 -8.82959459e-03 -3.76910344e-03 -1.91830785e-03
      1.13407653e-02 -7.05714850e-03 -9.47039109e-03 8.82943976e-04
      -1.47036901e-02 3.60884145e-02 5.96425775e-03 -7.50030507e-04
      -1.38416104e-02 -1.11206220e-02 5.29712811e-03 8.18930753e-03
      2.84819733e-02 -3.01901461e-03 3.63533124e-02 1.00438986e-02
      1.39219603e-02 -6.82970649e-03 2.74531567e-03 8.35381355e-03
      1.42065519e-02 3.11329402e-02 -5.44382725e-03 3.30919698e-02
      1.24690996e-03 8.33149720e-03 -8.41530971e-03 5.21224737e-03
      -1.28510362e-02 -2.64603794e-02 1.23575442e-02 -2.80479807e-02
      3.61541808e-02 -7.05256639e-03 1.23878354e-02 -1.46670947e-02
      -1.37344552e-02 1.11277099e-03 -1.11557143e-02 2.70744646e-03
      -2.13507898e-02 1.63336173e-02 6.61799917e-03 1.57259107e-02
      -2.51321737e-02 3.34741734e-03 -3.20293335e-03 -1.18495747e-02
      1.17961550e-02 -1.08433701e-02 3.71853933e-02 -1.94559095e-03
      9.60965082e-03 -6.96969358e-03 1.86033919e-02 2.97547202e-03
      -1.83538068e-02 2.08634753e-02 5.57355676e-03 2.47585811e-02
      2.46736705e-02 2.76430789e-02 8.45319685e-03 2.04874780e-02
      1.03583280e-02 -1.37750758e-02 -5.97523572e-03 -3.18052508e-02
      3.10902596e-02 -7.07112905e-03 1.14249345e-02 -1.55844763e-02
      7.55032152e-03 1.66879594e-02 -1.37028266e-02 -2.46326867e-02
      -3.08990832e-02 3.69526669e-02 9.47856251e-03 6.69703260e-03
      -2.01946273e-02 -1.50809309e-03 5.37679531e-03 -1.08433170e-02
      1.48841497e-02 3.64084891e-03 2.63412595e-02 1.78681295e-02
      3.30272913e-02 -6.38659252e-03 1.55786108e-02 3.60373035e-02
      1.74042070e-03 -1.15597225e-03 1.07888756e-02 2.55279355e-02
      2.00729426e-02 2.17549670e-02 -2.04460346e-03 2.67947707e-02
      4.15578578e-03 -3.41465957e-02 -3.27047035e-02 -2.05619037e-02
      3.39926742e-02 -3.57807567e-03 -7.14695035e-03 -2.06199232e-02
      -8.81440379e-03 2.73614824e-02 -2.92201377e-02 -1.23504121e-02
      -2.74366513e-03 4.74799201e-02 2.14997623e-02 5.74002683e-04
      -1.21470320e-03 1.69313215e-02 2.07465868e-02 -2.19807327e-02
      -8.34598951e-03 1.33937504e-02 4.08220924e-02 1.78899541e-02
      -3.41382925e-03 -1.96833778e-02 1.49773480e-02 3.29816341e-02
      -3.86132002e-02 -3.53719178e-03 1.96036906e-03 2.11183932e-02
      1.98685750e-02 -5.26036648e-03 -1.52378175e-02 1.95751935e-02</_></support_vectors>
  <decision_functions>
    <_>
      <sv_count>1</sv_count>
      <rho>3.0132093709793262e+00</rho>
      <alpha>
        1.</alpha></_></decision_functions></opencv_ml_svm>
</opencv_storage>
